{
    "svms": [
        {
            "weights": [
                -0.09961031377315521,
                0.29958122968673708,
                0.5075491070747376,
                0.11935296654701233,
                -0.03369161859154701,
                -0.13685904443264008,
                0.5785688757896423,
                -0.08327797800302506,
                0.6141747236251831,
                -0.3306441903114319,
                0.5099173188209534,
                -0.6151847243309021,
                -0.23645137250423432,
                -0.12604394555091859,
                0.37747788429260256
            ],
            "bias": -0.12969043850898744
        },
        {
            "weights": [
                0.6107625365257263,
                0.5134453773498535,
                -0.2899159789085388,
                0.7080916166305542,
                -0.6699700355529785,
                0.11608139425516129,
                -0.5372609496116638,
                -0.7091540694236755,
                0.7142060399055481,
                0.0561508946120739,
                0.5157943964004517,
                0.5092137455940247,
                -0.4172274172306061,
                -0.0606454536318779,
                0.5268202424049377
            ],
            "bias": -0.2649938762187958
        },
        {
            "weights": [
                -0.577542245388031,
                0.02494674362242222,
                0.010579990223050118,
                -0.04709941893815994,
                0.4365793764591217,
                0.30193182826042178,
                -0.08189838379621506,
                0.3123869299888611,
                -0.1239069476723671,
                -0.386781245470047,
                0.6505050659179688,
                0.4407599866390228,
                0.30131223797798159,
                0.45505982637405398,
                -0.5755817890167236
            ],
            "bias": -0.10770904272794724
        }
    ]
}